3 128
0 0.001585 0.002970 0.001715 0.004641 0.000118 0.007006 0.004664 0.000260 0.000985 0.002488 0.001632 0.005468 0.000004 0.003526 0.007006 0.003844 0.004026 0.005463 0.002470 0.007592 0.001581 0.006462 0.000377 0.007199 0.001653 0.003863 0.006072 0.000083 0.007682 0.005917 0.001469 0.003736 0.000062 0.007788 0.000305 0.001167 0.001757 0.006737 0.000744 0.000387 0.000341 0.002240 0.003738 0.004840 0.001259 0.000001 0.004911 0.004388 0.003896 0.005904 0.002380 0.002717 0.005563 0.003485 0.003680 0.007801 0.004087 0.006421 0.007075 0.005918 0.001055 0.001766 0.003975 0.007745 0.005238 0.004572 0.006913 0.006207 0.001377 0.000981 0.005405 0.007179 0.000729 0.005418 0.002648 0.001491 0.001947 0.001116 0.003385 0.004838 0.003566 0.001949 0.002704 0.003581 0.000254 0.004214 0.007639 0.006801 0.000310 0.003054 0.005326 0.000367 0.005569 0.001470 0.003626 0.001652 0.000119 0.005939 0.001884 0.004953 0.000503 0.001753 0.000255 0.004552 0.004437 0.002558 0.000406 0.007740 0.002239 0.002914 0.006789 0.001805 0.005536 0.005062 0.003963 0.002493 0.004867 0.003099 0.003988 0.000034 0.002102 0.007707 0.001589 0.004945 0.003618 0.001235 0.007261 0.006190 
00 0.003081 0.004659 0.005094 0.003258 0.007756 0.007812 0.007426 0.005776 0.006261 0.005130 0.006715 0.001872 0.003587 0.000416 0.000534 0.007539 0.004391 0.004651 0.005636 0.000312 0.001944 0.007412 0.007416 0.003130 0.002323 0.006167 0.002380 0.000031 0.002500 0.002280 0.003861 0.002510 0.002887 0.002273 0.003926 0.007789 0.006049 0.006132 0.006001 0.004106 0.005575 0.001498 0.001560 0.001536 0.001840 0.003008 0.004765 0.003689 0.004434 0.004821 0.005162 0.007401 0.003327 0.000354 0.001612 0.001614 0.006525 0.003100 0.006996 0.005088 0.007468 0.002372 0.000123 0.003608 0.007288 0.007277 0.003551 0.002159 0.001422 0.007340 0.000582 0.002348 0.006323 0.006256 0.003682 0.000441 0.007354 0.005748 0.007125 0.000294 0.005699 0.005066 0.005795 0.003400 0.006048 0.007539 0.001674 0.002790 0.006175 0.003200 0.006766 0.000903 0.003607 0.007188 0.007442 0.003844 0.003670 0.002658 0.002969 0.006023 0.003536 0.003903 0.001660 0.003130 0.006757 0.000596 0.000715 0.006654 0.000725 0.005678 0.006182 0.000122 0.000377 0.004930 0.001554 0.004112 0.004518 0.004446 0.006685 0.001787 0.000763 0.002568 0.000292 0.005354 0.001504 0.003997 0.001052 0.004151 
000 0.003836 0.002348 0.003522 0.003480 0.004650 0.000182 0.001437 0.004819 0.005123 0.001801 0.004881 0.001728 0.006822 0.002267 0.002210 0.002209 0.001823 0.007599 0.006048 0.003365 0.002267 0.004139 0.007726 0.000329 0.000863 0.000590 0.004981 0.001819 0.007455 0.007767 0.001898 0.001498 0.001102 0.004232 0.006555 0.004910 0.007290 0.007320 0.002008 0.004288 0.000337 0.002847 0.005734 0.000195 0.004121 0.004098 0.002335 0.000654 0.006656 0.002949 0.000711 0.002209 0.003770 0.005306 0.007146 0.002341 0.007106 0.002983 0.007416 0.004424 0.001774 0.001362 0.004689 0.005043 0.006655 0.000456 0.006981 0.002269 0.001453 0.006541 0.006196 0.000755 0.000877 0.004485 0.003960 0.003424 0.006975 0.001322 0.002744 0.002272 0.002854 0.005202 0.003713 0.002156 0.005838 0.006279 0.005821 0.003757 0.003069 0.003363 0.001249 0.006315 0.004297 0.007697 0.005933 0.005660 0.007334 0.002312 0.000674 0.003875 0.002829 0.003731 0.007338 0.006714 0.006343 0.002374 0.006044 0.000889 0.003858 0.002068 0.005605 0.001695 0.003356 0.006486 0.005430 0.006026 0.006741 0.005582 0.006308 0.004174 0.002543 0.002665 0.003042 0.000159 0.001713 0.005826 0.002531 0.006977 
